digraph Tree {
node [shape=box, style="filled, rounded", color="black", fontname=helvetica] ;
edge [fontname=helvetica] ;
0 [label="aluminium <= 0.38\ngini = 0.5\nsamples = 1274\nvalue = [637, 637]\nclass = safe", fillcolor="#e5813900"] ;
1 [label="aluminium <= 0.15\ngini = 0.39\nsamples = 744\nvalue = [549, 195]\nclass = safe", fillcolor="#e58139a4"] ;
0 -> 1 [labeldistance=2.5, labelangle=45, headlabel="True"] ;
2 [label="chloramine <= 0.44\ngini = 0.35\nsamples = 647\nvalue = [502, 145]\nclass = safe", fillcolor="#e58139b5"] ;
1 -> 2 ;
3 [label="gini = 0.3\nsamples = 398\nvalue = [325, 73]\nclass = safe", fillcolor="#e58139c6"] ;
2 -> 3 ;
4 [label="gini = 0.41\nsamples = 249\nvalue = [177, 72]\nclass = safe", fillcolor="#e5813997"] ;
2 -> 4 ;
5 [label="aluminium <= 0.37\ngini = 0.5\nsamples = 97\nvalue = [47, 50]\nclass = not safe", fillcolor="#399de50f"] ;
1 -> 5 ;
6 [label="gini = 0.5\nsamples = 94\nvalue = [44, 50]\nclass = not safe", fillcolor="#399de51f"] ;
5 -> 6 ;
7 [label="gini = 0.0\nsamples = 3\nvalue = [3, 0]\nclass = safe", fillcolor="#e58139ff"] ;
5 -> 7 ;
8 [label="aluminium <= 3.62\ngini = 0.28\nsamples = 530\nvalue = [88, 442]\nclass = not safe", fillcolor="#399de5cc"] ;
0 -> 8 [labeldistance=2.5, labelangle=-45, headlabel="False"] ;
9 [label="chloramine <= 2.01\ngini = 0.23\nsamples = 377\nvalue = [51, 326]\nclass = not safe", fillcolor="#399de5d7"] ;
8 -> 9 ;
10 [label="gini = 0.14\nsamples = 82\nvalue = [6, 76]\nclass = not safe", fillcolor="#399de5eb"] ;
9 -> 10 ;
11 [label="gini = 0.26\nsamples = 295\nvalue = [45, 250]\nclass = not safe", fillcolor="#399de5d1"] ;
9 -> 11 ;
12 [label="chloramine <= 4.56\ngini = 0.37\nsamples = 153\nvalue = [37, 116]\nclass = not safe", fillcolor="#399de5ae"] ;
8 -> 12 ;
13 [label="gini = 0.25\nsamples = 89\nvalue = [13, 76]\nclass = not safe", fillcolor="#399de5d3"] ;
12 -> 13 ;
14 [label="gini = 0.47\nsamples = 64\nvalue = [24, 40]\nclass = not safe", fillcolor="#399de566"] ;
12 -> 14 ;
}