digraph Tree {
node [shape=box, style="filled, rounded", color="black", fontname=helvetica] ;
edge [fontname=helvetica] ;
0 [label="cadmium <= 0.01\ngini = 0.5\nsamples = 1274\nvalue = [637, 637]\nclass = safe", fillcolor="#e5813900"] ;
1 [label="aluminium <= 0.28\ngini = 0.36\nsamples = 634\nvalue = [147, 487]\nclass = not safe", fillcolor="#399de5b2"] ;
0 -> 1 [labeldistance=2.5, labelangle=45, headlabel="True"] ;
2 [label="silver <= 0.12\ngini = 0.47\nsamples = 158\nvalue = [98, 60]\nclass = safe", fillcolor="#e5813963"] ;
1 -> 2 ;
3 [label="uranium <= 0.05\ngini = 0.47\nsamples = 68\nvalue = [26, 42]\nclass = not safe", fillcolor="#399de561"] ;
2 -> 3 ;
4 [label="chloramine <= 0.16\ngini = 0.3\nsamples = 49\nvalue = [9, 40]\nclass = not safe", fillcolor="#399de5c6"] ;
3 -> 4 ;
5 [label="gini = 0.0\nsamples = 6\nvalue = [6, 0]\nclass = safe", fillcolor="#e58139ff"] ;
4 -> 5 ;
6 [label="perchlorate <= 55.57\ngini = 0.13\nsamples = 43\nvalue = [3, 40]\nclass = not safe", fillcolor="#399de5ec"] ;
4 -> 6 ;
7 [label="radium <= 6.1\ngini = 0.09\nsamples = 42\nvalue = [2, 40]\nclass = not safe", fillcolor="#399de5f2"] ;
6 -> 7 ;
8 [label="cadmium <= 0.01\ngini = 0.05\nsamples = 41\nvalue = [1, 40]\nclass = not safe", fillcolor="#399de5f9"] ;
7 -> 8 ;
9 [label="gini = 0.0\nsamples = 38\nvalue = [0, 38]\nclass = not safe", fillcolor="#399de5ff"] ;
8 -> 9 ;
10 [label="lead <= 0.1\ngini = 0.44\nsamples = 3\nvalue = [1, 2]\nclass = not safe", fillcolor="#399de57f"] ;
8 -> 10 ;
11 [label="gini = 0.0\nsamples = 1\nvalue = [1, 0]\nclass = safe", fillcolor="#e58139ff"] ;
10 -> 11 ;
12 [label="gini = 0.0\nsamples = 2\nvalue = [0, 2]\nclass = not safe", fillcolor="#399de5ff"] ;
10 -> 12 ;
13 [label="gini = 0.0\nsamples = 1\nvalue = [1, 0]\nclass = safe", fillcolor="#e58139ff"] ;
7 -> 13 ;
14 [label="gini = 0.0\nsamples = 1\nvalue = [1, 0]\nclass = safe", fillcolor="#e58139ff"] ;
6 -> 14 ;
15 [label="aluminium <= 0.16\ngini = 0.19\nsamples = 19\nvalue = [17, 2]\nclass = safe", fillcolor="#e58139e1"] ;
3 -> 15 ;
16 [label="gini = 0.0\nsamples = 17\nvalue = [17, 0]\nclass = safe", fillcolor="#e58139ff"] ;
15 -> 16 ;
17 [label="gini = 0.0\nsamples = 2\nvalue = [0, 2]\nclass = not safe", fillcolor="#399de5ff"] ;
15 -> 17 ;
18 [label="bacteria <= 0.02\ngini = 0.32\nsamples = 90\nvalue = [72, 18]\nclass = safe", fillcolor="#e58139bf"] ;
2 -> 18 ;
19 [label="gini = 0.0\nsamples = 8\nvalue = [0, 8]\nclass = not safe", fillcolor="#399de5ff"] ;
18 -> 19 ;
20 [label="aluminium <= 0.13\ngini = 0.21\nsamples = 82\nvalue = [72, 10]\nclass = safe", fillcolor="#e58139dc"] ;
18 -> 20 ;
21 [label="aluminium <= 0.0\ngini = 0.04\nsamples = 54\nvalue = [53, 1]\nclass = safe", fillcolor="#e58139fa"] ;
20 -> 21 ;
22 [label="perchlorate <= 16.31\ngini = 0.5\nsamples = 2\nvalue = [1, 1]\nclass = safe", fillcolor="#e5813900"] ;
21 -> 22 ;
23 [label="gini = 0.0\nsamples = 1\nvalue = [1, 0]\nclass = safe", fillcolor="#e58139ff"] ;
22 -> 23 ;
24 [label="gini = 0.0\nsamples = 1\nvalue = [0, 1]\nclass = not safe", fillcolor="#399de5ff"] ;
22 -> 24 ;
25 [label="gini = 0.0\nsamples = 52\nvalue = [52, 0]\nclass = safe", fillcolor="#e58139ff"] ;
21 -> 25 ;
26 [label="barium <= 1.92\ngini = 0.44\nsamples = 28\nvalue = [19, 9]\nclass = safe", fillcolor="#e5813986"] ;
20 -> 26 ;
27 [label="chloramine <= 4.71\ngini = 0.49\nsamples = 12\nvalue = [5, 7]\nclass = not safe", fillcolor="#399de549"] ;
26 -> 27 ;
28 [label="arsenic <= 0.02\ngini = 0.41\nsamples = 7\nvalue = [5, 2]\nclass = safe", fillcolor="#e5813999"] ;
27 -> 28 ;
29 [label="aluminium <= 0.22\ngini = 0.44\nsamples = 3\nvalue = [1, 2]\nclass = not safe", fillcolor="#399de57f"] ;
28 -> 29 ;
30 [label="gini = 0.0\nsamples = 1\nvalue = [1, 0]\nclass = safe", fillcolor="#e58139ff"] ;
29 -> 30 ;
31 [label="gini = 0.0\nsamples = 2\nvalue = [0, 2]\nclass = not safe", fillcolor="#399de5ff"] ;
29 -> 31 ;
32 [label="gini = 0.0\nsamples = 4\nvalue = [4, 0]\nclass = safe", fillcolor="#e58139ff"] ;
28 -> 32 ;
33 [label="gini = 0.0\nsamples = 5\nvalue = [0, 5]\nclass = not safe", fillcolor="#399de5ff"] ;
27 -> 33 ;
34 [label="flouride <= 0.16\ngini = 0.22\nsamples = 16\nvalue = [14, 2]\nclass = safe", fillcolor="#e58139db"] ;
26 -> 34 ;
35 [label="aluminium <= 0.22\ngini = 0.44\nsamples = 3\nvalue = [1, 2]\nclass = not safe", fillcolor="#399de57f"] ;
34 -> 35 ;
36 [label="gini = 0.0\nsamples = 2\nvalue = [0, 2]\nclass = not safe", fillcolor="#399de5ff"] ;
35 -> 36 ;
37 [label="gini = 0.0\nsamples = 1\nvalue = [1, 0]\nclass = safe", fillcolor="#e58139ff"] ;
35 -> 37 ;
38 [label="gini = 0.0\nsamples = 13\nvalue = [13, 0]\nclass = safe", fillcolor="#e58139ff"] ;
34 -> 38 ;
39 [label="perchlorate <= 46.03\ngini = 0.18\nsamples = 476\nvalue = [49, 427]\nclass = not safe", fillcolor="#399de5e2"] ;
1 -> 39 ;
40 [label="perchlorate <= 38.4\ngini = 0.08\nsamples = 428\nvalue = [19, 409]\nclass = not safe", fillcolor="#399de5f3"] ;
39 -> 40 ;
41 [label="barium <= 0.01\ngini = 0.05\nsamples = 393\nvalue = [10, 383]\nclass = not safe", fillcolor="#399de5f8"] ;
40 -> 41 ;
42 [label="gini = 0.0\nsamples = 1\nvalue = [1, 0]\nclass = safe", fillcolor="#e58139ff"] ;
41 -> 42 ;
43 [label="aluminium <= 0.36\ngini = 0.04\nsamples = 392\nvalue = [9, 383]\nclass = not safe", fillcolor="#399de5f9"] ;
41 -> 43 ;
44 [label="copper <= 1.44\ngini = 0.34\nsamples = 14\nvalue = [3, 11]\nclass = not safe", fillcolor="#399de5b9"] ;
43 -> 44 ;
45 [label="silver <= 0.04\ngini = 0.26\nsamples = 13\nvalue = [2, 11]\nclass = not safe", fillcolor="#399de5d1"] ;
44 -> 45 ;
46 [label="gini = 0.0\nsamples = 1\nvalue = [1, 0]\nclass = safe", fillcolor="#e58139ff"] ;
45 -> 46 ;
47 [label="cadmium <= 0.01\ngini = 0.15\nsamples = 12\nvalue = [1, 11]\nclass = not safe", fillcolor="#399de5e8"] ;
45 -> 47 ;
48 [label="gini = 0.0\nsamples = 10\nvalue = [0, 10]\nclass = not safe", fillcolor="#399de5ff"] ;
47 -> 48 ;
49 [label="chromium <= 0.55\ngini = 0.5\nsamples = 2\nvalue = [1, 1]\nclass = safe", fillcolor="#e5813900"] ;
47 -> 49 ;
50 [label="gini = 0.0\nsamples = 1\nvalue = [1, 0]\nclass = safe", fillcolor="#e58139ff"] ;
49 -> 50 ;
51 [label="gini = 0.0\nsamples = 1\nvalue = [0, 1]\nclass = not safe", fillcolor="#399de5ff"] ;
49 -> 51 ;
52 [label="gini = 0.0\nsamples = 1\nvalue = [1, 0]\nclass = safe", fillcolor="#e58139ff"] ;
44 -> 52 ;
53 [label="perchlorate <= 30.22\ngini = 0.03\nsamples = 378\nvalue = [6, 372]\nclass = not safe", fillcolor="#399de5fb"] ;
43 -> 53 ;
54 [label="gini = 0.0\nsamples = 313\nvalue = [0, 313]\nclass = not safe", fillcolor="#399de5ff"] ;
53 -> 54 ;
55 [label="ammonia <= 25.07\ngini = 0.17\nsamples = 65\nvalue = [6, 59]\nclass = not safe", fillcolor="#399de5e5"] ;
53 -> 55 ;
56 [label="nitrates <= 17.03\ngini = 0.09\nsamples = 62\nvalue = [3, 59]\nclass = not safe", fillcolor="#399de5f2"] ;
55 -> 56 ;
57 [label="nitrites <= 1.88\ngini = 0.03\nsamples = 59\nvalue = [1, 58]\nclass = not safe", fillcolor="#399de5fb"] ;
56 -> 57 ;
58 [label="gini = 0.0\nsamples = 56\nvalue = [0, 56]\nclass = not safe", fillcolor="#399de5ff"] ;
57 -> 58 ;
59 [label="silver <= 0.19\ngini = 0.44\nsamples = 3\nvalue = [1, 2]\nclass = not safe", fillcolor="#399de57f"] ;
57 -> 59 ;
60 [label="gini = 0.0\nsamples = 1\nvalue = [1, 0]\nclass = safe", fillcolor="#e58139ff"] ;
59 -> 60 ;
61 [label="gini = 0.0\nsamples = 2\nvalue = [0, 2]\nclass = not safe", fillcolor="#399de5ff"] ;
59 -> 61 ;
62 [label="selenium <= 0.08\ngini = 0.44\nsamples = 3\nvalue = [2, 1]\nclass = safe", fillcolor="#e581397f"] ;
56 -> 62 ;
63 [label="gini = 0.0\nsamples = 2\nvalue = [2, 0]\nclass = safe", fillcolor="#e58139ff"] ;
62 -> 63 ;
64 [label="gini = 0.0\nsamples = 1\nvalue = [0, 1]\nclass = not safe", fillcolor="#399de5ff"] ;
62 -> 64 ;
65 [label="gini = 0.0\nsamples = 3\nvalue = [3, 0]\nclass = safe", fillcolor="#e58139ff"] ;
55 -> 65 ;
66 [label="ammonia <= 11.0\ngini = 0.38\nsamples = 35\nvalue = [9, 26]\nclass = not safe", fillcolor="#399de5a7"] ;
40 -> 66 ;
67 [label="gini = 0.0\nsamples = 20\nvalue = [0, 20]\nclass = not safe", fillcolor="#399de5ff"] ;
66 -> 67 ;
68 [label="copper <= 1.1\ngini = 0.48\nsamples = 15\nvalue = [9, 6]\nclass = safe", fillcolor="#e5813955"] ;
66 -> 68 ;
69 [label="gini = 0.0\nsamples = 6\nvalue = [0, 6]\nclass = not safe", fillcolor="#399de5ff"] ;
68 -> 69 ;
70 [label="gini = 0.0\nsamples = 9\nvalue = [9, 0]\nclass = safe", fillcolor="#e58139ff"] ;
68 -> 70 ;
71 [label="ammonia <= 10.43\ngini = 0.47\nsamples = 48\nvalue = [30, 18]\nclass = safe", fillcolor="#e5813966"] ;
39 -> 71 ;
72 [label="perchlorate <= 54.36\ngini = 0.24\nsamples = 21\nvalue = [3, 18]\nclass = not safe", fillcolor="#399de5d4"] ;
71 -> 72 ;
73 [label="gini = 0.0\nsamples = 16\nvalue = [0, 16]\nclass = not safe", fillcolor="#399de5ff"] ;
72 -> 73 ;
74 [label="barium <= 1.12\ngini = 0.48\nsamples = 5\nvalue = [3, 2]\nclass = safe", fillcolor="#e5813955"] ;
72 -> 74 ;
75 [label="gini = 0.0\nsamples = 2\nvalue = [0, 2]\nclass = not safe", fillcolor="#399de5ff"] ;
74 -> 75 ;
76 [label="gini = 0.0\nsamples = 3\nvalue = [3, 0]\nclass = safe", fillcolor="#e58139ff"] ;
74 -> 76 ;
77 [label="gini = 0.0\nsamples = 27\nvalue = [27, 0]\nclass = safe", fillcolor="#e58139ff"] ;
71 -> 77 ;
78 [label="silver <= 0.11\ngini = 0.36\nsamples = 640\nvalue = [490, 150]\nclass = safe", fillcolor="#e58139b1"] ;
0 -> 78 [labeldistance=2.5, labelangle=-45, headlabel="False"] ;
79 [label="chloramine <= 0.81\ngini = 0.42\nsamples = 502\nvalue = [352, 150]\nclass = safe", fillcolor="#e5813992"] ;
78 -> 79 ;
80 [label="viruses <= 0.25\ngini = 0.33\nsamples = 419\nvalue = [331, 88]\nclass = safe", fillcolor="#e58139bb"] ;
79 -> 80 ;
81 [label="nitrites <= 1.01\ngini = 0.44\nsamples = 259\nvalue = [173, 86]\nclass = safe", fillcolor="#e5813980"] ;
80 -> 81 ;
82 [label="nitrates <= 10.09\ngini = 0.5\nsamples = 163\nvalue = [77, 86]\nclass = not safe", fillcolor="#399de51b"] ;
81 -> 82 ;
83 [label="lead <= 0.16\ngini = 0.34\nsamples = 102\nvalue = [22, 80]\nclass = not safe", fillcolor="#399de5b9"] ;
82 -> 83 ;
84 [label="copper <= 1.3\ngini = 0.28\nsamples = 96\nvalue = [16, 80]\nclass = not safe", fillcolor="#399de5cc"] ;
83 -> 84 ;
85 [label="barium <= 2.16\ngini = 0.24\nsamples = 93\nvalue = [13, 80]\nclass = not safe", fillcolor="#399de5d6"] ;
84 -> 85 ;
86 [label="barium <= 0.04\ngini = 0.21\nsamples = 91\nvalue = [11, 80]\nclass = not safe", fillcolor="#399de5dc"] ;
85 -> 86 ;
87 [label="chromium <= 0.05\ngini = 0.5\nsamples = 6\nvalue = [3, 3]\nclass = safe", fillcolor="#e5813900"] ;
86 -> 87 ;
88 [label="gini = 0.0\nsamples = 3\nvalue = [0, 3]\nclass = not safe", fillcolor="#399de5ff"] ;
87 -> 88 ;
89 [label="gini = 0.0\nsamples = 3\nvalue = [3, 0]\nclass = safe", fillcolor="#e58139ff"] ;
87 -> 89 ;
90 [label="ammonia <= 0.12\ngini = 0.17\nsamples = 85\nvalue = [8, 77]\nclass = not safe", fillcolor="#399de5e5"] ;
86 -> 90 ;
91 [label="gini = 0.0\nsamples = 1\nvalue = [1, 0]\nclass = safe", fillcolor="#e58139ff"] ;
90 -> 91 ;
92 [label="bacteria <= 0.15\ngini = 0.15\nsamples = 84\nvalue = [7, 77]\nclass = not safe", fillcolor="#399de5e8"] ;
90 -> 92 ;
93 [label="mercury <= 0.01\ngini = 0.13\nsamples = 83\nvalue = [6, 77]\nclass = not safe", fillcolor="#399de5eb"] ;
92 -> 93 ;
94 [label="radium <= 4.26\ngini = 0.04\nsamples = 54\nvalue = [1, 53]\nclass = not safe", fillcolor="#399de5fa"] ;
93 -> 94 ;
95 [label="gini = 0.0\nsamples = 52\nvalue = [0, 52]\nclass = not safe", fillcolor="#399de5ff"] ;
94 -> 95 ;
96 [label="viruses <= 0.0\ngini = 0.5\nsamples = 2\nvalue = [1, 1]\nclass = safe", fillcolor="#e5813900"] ;
94 -> 96 ;
97 [label="gini = 0.0\nsamples = 1\nvalue = [1, 0]\nclass = safe", fillcolor="#e58139ff"] ;
96 -> 97 ;
98 [label="gini = 0.0\nsamples = 1\nvalue = [0, 1]\nclass = not safe", fillcolor="#399de5ff"] ;
96 -> 98 ;
99 [label="flouride <= 0.56\ngini = 0.29\nsamples = 29\nvalue = [5, 24]\nclass = not safe", fillcolor="#399de5ca"] ;
93 -> 99 ;
100 [label="copper <= 0.08\ngini = 0.5\nsamples = 6\nvalue = [3, 3]\nclass = safe", fillcolor="#e5813900"] ;
99 -> 100 ;
101 [label="gini = 0.0\nsamples = 3\nvalue = [0, 3]\nclass = not safe", fillcolor="#399de5ff"] ;
100 -> 101 ;
102 [label="gini = 0.0\nsamples = 3\nvalue = [3, 0]\nclass = safe", fillcolor="#e58139ff"] ;
100 -> 102 ;
103 [label="bacteria <= 0.06\ngini = 0.16\nsamples = 23\nvalue = [2, 21]\nclass = not safe", fillcolor="#399de5e7"] ;
99 -> 103 ;
104 [label="cadmium <= 0.01\ngini = 0.09\nsamples = 22\nvalue = [1, 21]\nclass = not safe", fillcolor="#399de5f3"] ;
103 -> 104 ;
105 [label="selenium <= 0.05\ngini = 0.5\nsamples = 2\nvalue = [1, 1]\nclass = safe", fillcolor="#e5813900"] ;
104 -> 105 ;
106 [label="gini = 0.0\nsamples = 1\nvalue = [1, 0]\nclass = safe", fillcolor="#e58139ff"] ;
105 -> 106 ;
107 [label="gini = 0.0\nsamples = 1\nvalue = [0, 1]\nclass = not safe", fillcolor="#399de5ff"] ;
105 -> 107 ;
108 [label="gini = 0.0\nsamples = 20\nvalue = [0, 20]\nclass = not safe", fillcolor="#399de5ff"] ;
104 -> 108 ;
109 [label="gini = 0.0\nsamples = 1\nvalue = [1, 0]\nclass = safe", fillcolor="#e58139ff"] ;
103 -> 109 ;
110 [label="gini = 0.0\nsamples = 1\nvalue = [1, 0]\nclass = safe", fillcolor="#e58139ff"] ;
92 -> 110 ;
111 [label="gini = 0.0\nsamples = 2\nvalue = [2, 0]\nclass = safe", fillcolor="#e58139ff"] ;
85 -> 111 ;
112 [label="gini = 0.0\nsamples = 3\nvalue = [3, 0]\nclass = safe", fillcolor="#e58139ff"] ;
84 -> 112 ;
113 [label="gini = 0.0\nsamples = 6\nvalue = [6, 0]\nclass = safe", fillcolor="#e58139ff"] ;
83 -> 113 ;
114 [label="nitrites <= 0.98\ngini = 0.18\nsamples = 61\nvalue = [55, 6]\nclass = safe", fillcolor="#e58139e3"] ;
82 -> 114 ;
115 [label="ammonia <= 0.09\ngini = 0.04\nsamples = 54\nvalue = [53, 1]\nclass = safe", fillcolor="#e58139fa"] ;
114 -> 115 ;
116 [label="gini = 0.0\nsamples = 1\nvalue = [0, 1]\nclass = not safe", fillcolor="#399de5ff"] ;
115 -> 116 ;
117 [label="gini = 0.0\nsamples = 53\nvalue = [53, 0]\nclass = safe", fillcolor="#e58139ff"] ;
115 -> 117 ;
118 [label="copper <= 0.78\ngini = 0.41\nsamples = 7\nvalue = [2, 5]\nclass = not safe", fillcolor="#399de599"] ;
114 -> 118 ;
119 [label="gini = 0.0\nsamples = 5\nvalue = [0, 5]\nclass = not safe", fillcolor="#399de5ff"] ;
118 -> 119 ;
120 [label="gini = 0.0\nsamples = 2\nvalue = [2, 0]\nclass = safe", fillcolor="#e58139ff"] ;
118 -> 120 ;
121 [label="gini = 0.0\nsamples = 96\nvalue = [96, 0]\nclass = safe", fillcolor="#e58139ff"] ;
81 -> 121 ;
122 [label="aluminium <= 0.11\ngini = 0.02\nsamples = 160\nvalue = [158, 2]\nclass = safe", fillcolor="#e58139fc"] ;
80 -> 122 ;
123 [label="gini = 0.0\nsamples = 158\nvalue = [158, 0]\nclass = safe", fillcolor="#e58139ff"] ;
122 -> 123 ;
124 [label="gini = 0.0\nsamples = 2\nvalue = [0, 2]\nclass = not safe", fillcolor="#399de5ff"] ;
122 -> 124 ;
125 [label="uranium <= 0.04\ngini = 0.38\nsamples = 83\nvalue = [21, 62]\nclass = not safe", fillcolor="#399de5a9"] ;
79 -> 125 ;
126 [label="radium <= 6.06\ngini = 0.14\nsamples = 67\nvalue = [5, 62]\nclass = not safe", fillcolor="#399de5ea"] ;
125 -> 126 ;
127 [label="selenium <= 0.09\ngini = 0.03\nsamples = 63\nvalue = [1, 62]\nclass = not safe", fillcolor="#399de5fb"] ;
126 -> 127 ;
128 [label="gini = 0.0\nsamples = 62\nvalue = [0, 62]\nclass = not safe", fillcolor="#399de5ff"] ;
127 -> 128 ;
129 [label="gini = 0.0\nsamples = 1\nvalue = [1, 0]\nclass = safe", fillcolor="#e58139ff"] ;
127 -> 129 ;
130 [label="gini = 0.0\nsamples = 4\nvalue = [4, 0]\nclass = safe", fillcolor="#e58139ff"] ;
126 -> 130 ;
131 [label="gini = 0.0\nsamples = 16\nvalue = [16, 0]\nclass = safe", fillcolor="#e58139ff"] ;
125 -> 131 ;
132 [label="gini = 0.0\nsamples = 138\nvalue = [138, 0]\nclass = safe", fillcolor="#e58139ff"] ;
78 -> 132 ;
}