digraph Tree {
node [shape=box, style="filled, rounded", color="black", fontname=helvetica] ;
edge [fontname=helvetica] ;
0 [label="aluminium <= 0.22\nentropy = 1.0\nsamples = 1274\nvalue = [637, 637]\nclass = safe", fillcolor="#e5813900"] ;
1 [label="chloramine <= 1.99\nentropy = 0.79\nsamples = 675\nvalue = [514, 161]\nclass = safe", fillcolor="#e58139af"] ;
0 -> 1 [labeldistance=2.5, labelangle=45, headlabel="True"] ;
2 [label="chromium <= 0.65\nentropy = 0.72\nsamples = 492\nvalue = [393, 99]\nclass = safe", fillcolor="#e58139bf"] ;
1 -> 2 ;
3 [label="entropy = 0.74\nsamples = 471\nvalue = [372, 99]\nclass = safe", fillcolor="#e58139bb"] ;
2 -> 3 ;
4 [label="entropy = 0.0\nsamples = 21\nvalue = [21, 0]\nclass = safe", fillcolor="#e58139ff"] ;
2 -> 4 ;
5 [label="chloramine <= 2.09\nentropy = 0.92\nsamples = 183\nvalue = [121, 62]\nclass = safe", fillcolor="#e581397c"] ;
1 -> 5 ;
6 [label="entropy = 0.0\nsamples = 3\nvalue = [0, 3]\nclass = not safe", fillcolor="#399de5ff"] ;
5 -> 6 ;
7 [label="entropy = 0.91\nsamples = 180\nvalue = [121, 59]\nclass = safe", fillcolor="#e5813983"] ;
5 -> 7 ;
8 [label="chloramine <= 0.2\nentropy = 0.73\nsamples = 599\nvalue = [123, 476]\nclass = not safe", fillcolor="#399de5bd"] ;
0 -> 8 [labeldistance=2.5, labelangle=-45, headlabel="False"] ;
9 [label="entropy = 0.0\nsamples = 13\nvalue = [0, 13]\nclass = not safe", fillcolor="#399de5ff"] ;
8 -> 9 ;
10 [label="aluminium <= 0.4\nentropy = 0.74\nsamples = 586\nvalue = [123, 463]\nclass = not safe", fillcolor="#399de5bb"] ;
8 -> 10 ;
11 [label="entropy = 0.91\nsamples = 55\nvalue = [18, 37]\nclass = not safe", fillcolor="#399de583"] ;
10 -> 11 ;
12 [label="entropy = 0.72\nsamples = 531\nvalue = [105, 426]\nclass = not safe", fillcolor="#399de5c0"] ;
10 -> 12 ;
}